digraph Tree {
node [shape=box] ;
0 [label="X[96] <= 1398005.25\ngini = 0.5\nsamples = 2000\nvalue = [1000, 1000]"] ;
1 [label="X[54] <= 1111515.0\ngini = 0.11\nsamples = 994\nvalue = [936, 58]"] ;
0 -> 1 [labeldistance=2.5, labelangle=45, headlabel="True"] ;
2 [label="X[95] <= 444876.0\ngini = 0.062\nsamples = 960\nvalue = [929, 31]"] ;
1 -> 2 ;
3 [label="X[25] <= 1414974.0\ngini = 0.051\nsamples = 951\nvalue = [926, 25]"] ;
2 -> 3 ;
4 [label="X[108] <= 36108.0\ngini = 0.045\nsamples = 948\nvalue = [926, 22]"] ;
3 -> 4 ;
5 [label="X[87] <= 6370.0\ngini = 0.041\nsamples = 946\nvalue = [926, 20]"] ;
4 -> 5 ;
6 [label="X[0] <= 17152.0\ngini = 0.43\nsamples = 16\nvalue = [11, 5]"] ;
5 -> 6 ;
7 [label="gini = 0.0\nsamples = 9\nvalue = [9, 0]"] ;
6 -> 7 ;
8 [label="X[41] <= 20.0\ngini = 0.408\nsamples = 7\nvalue = [2, 5]"] ;
6 -> 8 ;
9 [label="gini = 0.0\nsamples = 4\nvalue = [0, 4]"] ;
8 -> 9 ;
10 [label="X[67] <= 2286524.0\ngini = 0.444\nsamples = 3\nvalue = [2, 1]"] ;
8 -> 10 ;
11 [label="X[80] <= 58976.09\ngini = 0.5\nsamples = 2\nvalue = [1, 1]"] ;
10 -> 11 ;
12 [label="gini = 0.0\nsamples = 1\nvalue = [1, 0]"] ;
11 -> 12 ;
13 [label="gini = 0.0\nsamples = 1\nvalue = [0, 1]"] ;
11 -> 13 ;
14 [label="gini = 0.0\nsamples = 1\nvalue = [1, 0]"] ;
10 -> 14 ;
15 [label="X[18] <= 8579.0\ngini = 0.032\nsamples = 930\nvalue = [915, 15]"] ;
5 -> 15 ;
16 [label="X[32] <= 79286.0\ngini = 0.03\nsamples = 929\nvalue = [915, 14]"] ;
15 -> 16 ;
17 [label="X[120] <= 63677.0\ngini = 0.028\nsamples = 928\nvalue = [915, 13]"] ;
16 -> 17 ;
18 [label="X[135] <= 91820.0\ngini = 0.024\nsamples = 919\nvalue = [908, 11]"] ;
17 -> 18 ;
19 [label="X[49] <= 33323.0\ngini = 0.022\nsamples = 916\nvalue = [906, 10]"] ;
18 -> 19 ;
20 [label="X[136] <= 1515.0\ngini = 0.02\nsamples = 912\nvalue = [903, 9]"] ;
19 -> 20 ;
21 [label="X[133] <= 31.0\ngini = 0.018\nsamples = 905\nvalue = [897, 8]"] ;
20 -> 21 ;
22 [label="X[85] <= 1551.0\ngini = 0.105\nsamples = 54\nvalue = [51, 3]"] ;
21 -> 22 ;
23 [label="X[144] <= 562.0\ngini = 0.074\nsamples = 52\nvalue = [50, 2]"] ;
22 -> 23 ;
24 [label="X[79] <= 119000.0\ngini = 0.04\nsamples = 49\nvalue = [48, 1]"] ;
23 -> 24 ;
25 [label="gini = 0.0\nsamples = 45\nvalue = [45, 0]"] ;
24 -> 25 ;
26 [label="X[39] <= 183632.0\ngini = 0.375\nsamples = 4\nvalue = [3, 1]"] ;
24 -> 26 ;
27 [label="gini = 0.0\nsamples = 1\nvalue = [0, 1]"] ;
26 -> 27 ;
28 [label="gini = 0.0\nsamples = 3\nvalue = [3, 0]"] ;
26 -> 28 ;
29 [label="X[132] <= 112.0\ngini = 0.444\nsamples = 3\nvalue = [2, 1]"] ;
23 -> 29 ;
30 [label="gini = 0.0\nsamples = 1\nvalue = [0, 1]"] ;
29 -> 30 ;
31 [label="gini = 0.0\nsamples = 2\nvalue = [2, 0]"] ;
29 -> 31 ;
32 [label="X[87] <= 36330.0\ngini = 0.5\nsamples = 2\nvalue = [1, 1]"] ;
22 -> 32 ;
33 [label="gini = 0.0\nsamples = 1\nvalue = [0, 1]"] ;
32 -> 33 ;
34 [label="gini = 0.0\nsamples = 1\nvalue = [1, 0]"] ;
32 -> 34 ;
35 [label="X[17] <= 8970.0\ngini = 0.012\nsamples = 851\nvalue = [846, 5]"] ;
21 -> 35 ;
36 [label="X[13] <= 1194493.0\ngini = 0.007\nsamples = 822\nvalue = [819, 3]"] ;
35 -> 36 ;
37 [label="X[71] <= 921780.0\ngini = 0.003\nsamples = 784\nvalue = [783, 1]"] ;
36 -> 37 ;
38 [label="gini = 0.0\nsamples = 752\nvalue = [752, 0]"] ;
37 -> 38 ;
39 [label="X[59] <= 49.0\ngini = 0.061\nsamples = 32\nvalue = [31, 1]"] ;
37 -> 39 ;
40 [label="X[164] <= 1980.0\ngini = 0.375\nsamples = 4\nvalue = [3, 1]"] ;
39 -> 40 ;
41 [label="gini = 0.0\nsamples = 3\nvalue = [3, 0]"] ;
40 -> 41 ;
42 [label="gini = 0.0\nsamples = 1\nvalue = [0, 1]"] ;
40 -> 42 ;
43 [label="gini = 0.0\nsamples = 28\nvalue = [28, 0]"] ;
39 -> 43 ;
44 [label="X[142] <= 18605.0\ngini = 0.1\nsamples = 38\nvalue = [36, 2]"] ;
36 -> 44 ;
45 [label="gini = 0.0\nsamples = 1\nvalue = [0, 1]"] ;
44 -> 45 ;
46 [label="X[58] <= 38669.0\ngini = 0.053\nsamples = 37\nvalue = [36, 1]"] ;
44 -> 46 ;
47 [label="X[49] <= 2.0\ngini = 0.5\nsamples = 2\nvalue = [1, 1]"] ;
46 -> 47 ;
48 [label="gini = 0.0\nsamples = 1\nvalue = [1, 0]"] ;
47 -> 48 ;
49 [label="gini = 0.0\nsamples = 1\nvalue = [0, 1]"] ;
47 -> 49 ;
50 [label="gini = 0.0\nsamples = 35\nvalue = [35, 0]"] ;
46 -> 50 ;
51 [label="X[44] <= 1221.0\ngini = 0.128\nsamples = 29\nvalue = [27, 2]"] ;
35 -> 51 ;
52 [label="X[94] <= 2839579.25\ngini = 0.444\nsamples = 3\nvalue = [1, 2]"] ;
51 -> 52 ;
53 [label="gini = 0.0\nsamples = 2\nvalue = [0, 2]"] ;
52 -> 53 ;
54 [label="gini = 0.0\nsamples = 1\nvalue = [1, 0]"] ;
52 -> 54 ;
55 [label="gini = 0.0\nsamples = 26\nvalue = [26, 0]"] ;
51 -> 55 ;
56 [label="X[107] <= 41.0\ngini = 0.245\nsamples = 7\nvalue = [6, 1]"] ;
20 -> 56 ;
57 [label="gini = 0.0\nsamples = 1\nvalue = [0, 1]"] ;
56 -> 57 ;
58 [label="gini = 0.0\nsamples = 6\nvalue = [6, 0]"] ;
56 -> 58 ;
59 [label="X[158] <= 346150.0\ngini = 0.375\nsamples = 4\nvalue = [3, 1]"] ;
19 -> 59 ;
60 [label="gini = 0.0\nsamples = 1\nvalue = [0, 1]"] ;
59 -> 60 ;
61 [label="gini = 0.0\nsamples = 3\nvalue = [3, 0]"] ;
59 -> 61 ;
62 [label="X[79] <= 125640.0\ngini = 0.444\nsamples = 3\nvalue = [2, 1]"] ;
18 -> 62 ;
63 [label="gini = 0.0\nsamples = 2\nvalue = [2, 0]"] ;
62 -> 63 ;
64 [label="gini = 0.0\nsamples = 1\nvalue = [0, 1]"] ;
62 -> 64 ;
65 [label="X[157] <= 1573.0\ngini = 0.346\nsamples = 9\nvalue = [7, 2]"] ;
17 -> 65 ;
66 [label="gini = 0.0\nsamples = 2\nvalue = [0, 2]"] ;
65 -> 66 ;
67 [label="gini = 0.0\nsamples = 7\nvalue = [7, 0]"] ;
65 -> 67 ;
68 [label="gini = 0.0\nsamples = 1\nvalue = [0, 1]"] ;
16 -> 68 ;
69 [label="gini = 0.0\nsamples = 1\nvalue = [0, 1]"] ;
15 -> 69 ;
70 [label="gini = 0.0\nsamples = 2\nvalue = [0, 2]"] ;
4 -> 70 ;
71 [label="gini = 0.0\nsamples = 3\nvalue = [0, 3]"] ;
3 -> 71 ;
72 [label="X[161] <= 248167.0\ngini = 0.444\nsamples = 9\nvalue = [3, 6]"] ;
2 -> 72 ;
73 [label="gini = 0.0\nsamples = 6\nvalue = [0, 6]"] ;
72 -> 73 ;
74 [label="gini = 0.0\nsamples = 3\nvalue = [3, 0]"] ;
72 -> 74 ;
75 [label="X[149] <= 33188050.0\ngini = 0.327\nsamples = 34\nvalue = [7, 27]"] ;
1 -> 75 ;
76 [label="X[42] <= 6620.0\ngini = 0.225\nsamples = 31\nvalue = [4, 27]"] ;
75 -> 76 ;
77 [label="X[34] <= 26656.0\ngini = 0.375\nsamples = 4\nvalue = [3, 1]"] ;
76 -> 77 ;
78 [label="gini = 0.0\nsamples = 3\nvalue = [3, 0]"] ;
77 -> 78 ;
79 [label="gini = 0.0\nsamples = 1\nvalue = [0, 1]"] ;
77 -> 79 ;
80 [label="X[87] <= 1118190.0\ngini = 0.071\nsamples = 27\nvalue = [1, 26]"] ;
76 -> 80 ;
81 [label="gini = 0.0\nsamples = 26\nvalue = [0, 26]"] ;
80 -> 81 ;
82 [label="gini = 0.0\nsamples = 1\nvalue = [1, 0]"] ;
80 -> 82 ;
83 [label="gini = 0.0\nsamples = 3\nvalue = [3, 0]"] ;
75 -> 83 ;
84 [label="X[94] <= 13302963.0\ngini = 0.119\nsamples = 1006\nvalue = [64, 942]"] ;
0 -> 84 [labeldistance=2.5, labelangle=-45, headlabel="False"] ;
85 [label="X[8] <= 20.0\ngini = 0.431\nsamples = 137\nvalue = [43, 94]"] ;
84 -> 85 ;
86 [label="X[101] <= 733.0\ngini = 0.441\nsamples = 58\nvalue = [39, 19]"] ;
85 -> 86 ;
87 [label="X[81] <= 16160694.0\ngini = 0.142\nsamples = 26\nvalue = [24, 2]"] ;
86 -> 87 ;
88 [label="gini = 0.0\nsamples = 24\nvalue = [24, 0]"] ;
87 -> 88 ;
89 [label="gini = 0.0\nsamples = 2\nvalue = [0, 2]"] ;
87 -> 89 ;
90 [label="X[39] <= 1656126.0\ngini = 0.498\nsamples = 32\nvalue = [15, 17]"] ;
86 -> 90 ;
91 [label="X[12] <= 140008.0\ngini = 0.165\nsamples = 11\nvalue = [1, 10]"] ;
90 -> 91 ;
92 [label="gini = 0.0\nsamples = 1\nvalue = [1, 0]"] ;
91 -> 92 ;
93 [label="gini = 0.0\nsamples = 10\nvalue = [0, 10]"] ;
91 -> 93 ;
94 [label="X[66] <= 75.0\ngini = 0.444\nsamples = 21\nvalue = [14, 7]"] ;
90 -> 94 ;
95 [label="gini = 0.0\nsamples = 11\nvalue = [11, 0]"] ;
94 -> 95 ;
96 [label="X[120] <= 8985.0\ngini = 0.42\nsamples = 10\nvalue = [3, 7]"] ;
94 -> 96 ;
97 [label="gini = 0.0\nsamples = 3\nvalue = [3, 0]"] ;
96 -> 97 ;
98 [label="gini = 0.0\nsamples = 7\nvalue = [0, 7]"] ;
96 -> 98 ;
99 [label="X[75] <= 138500.0\ngini = 0.096\nsamples = 79\nvalue = [4, 75]"] ;
85 -> 99 ;
100 [label="X[94] <= 5814197.0\ngini = 0.444\nsamples = 6\nvalue = [4, 2]"] ;
99 -> 100 ;
101 [label="gini = 0.0\nsamples = 2\nvalue = [0, 2]"] ;
100 -> 101 ;
102 [label="gini = 0.0\nsamples = 4\nvalue = [4, 0]"] ;
100 -> 102 ;
103 [label="gini = 0.0\nsamples = 73\nvalue = [0, 73]"] ;
99 -> 103 ;
104 [label="X[129] <= 248.0\ngini = 0.047\nsamples = 869\nvalue = [21, 848]"] ;
84 -> 104 ;
105 [label="X[145] <= 4063681536.0\ngini = 0.043\nsamples = 866\nvalue = [19, 847]"] ;
104 -> 105 ;
106 [label="X[94] <= 15536973.0\ngini = 0.041\nsamples = 865\nvalue = [18, 847]"] ;
105 -> 106 ;
107 [label="X[30] <= 533.0\ngini = 0.219\nsamples = 48\nvalue = [6, 42]"] ;
106 -> 107 ;
108 [label="X[53] <= 2708785.0\ngini = 0.48\nsamples = 15\nvalue = [6, 9]"] ;
107 -> 108 ;
109 [label="gini = 0.0\nsamples = 6\nvalue = [0, 6]"] ;
108 -> 109 ;
110 [label="X[80] <= 206790.641\ngini = 0.444\nsamples = 9\nvalue = [6, 3]"] ;
108 -> 110 ;
111 [label="X[150] <= 7765670.0\ngini = 0.375\nsamples = 4\nvalue = [1, 3]"] ;
110 -> 111 ;
112 [label="gini = 0.0\nsamples = 3\nvalue = [0, 3]"] ;
111 -> 112 ;
113 [label="gini = 0.0\nsamples = 1\nvalue = [1, 0]"] ;
111 -> 113 ;
114 [label="gini = 0.0\nsamples = 5\nvalue = [5, 0]"] ;
110 -> 114 ;
115 [label="gini = 0.0\nsamples = 33\nvalue = [0, 33]"] ;
107 -> 115 ;
116 [label="X[151] <= 69728952.0\ngini = 0.029\nsamples = 817\nvalue = [12, 805]"] ;
106 -> 116 ;
117 [label="X[130] <= 55.0\ngini = 0.024\nsamples = 809\nvalue = [10, 799]"] ;
116 -> 117 ;
118 [label="X[50] <= 17.0\ngini = 0.022\nsamples = 805\nvalue = [9, 796]"] ;
117 -> 118 ;
119 [label="X[155] <= 20.0\ngini = 0.009\nsamples = 688\nvalue = [3, 685]"] ;
118 -> 119 ;
120 [label="X[152] <= 52687.0\ngini = 0.111\nsamples = 34\nvalue = [2, 32]"] ;
119 -> 120 ;
121 [label="X[25] <= 2298505.0\ngini = 0.059\nsamples = 33\nvalue = [1, 32]"] ;
120 -> 121 ;
122 [label="X[87] <= 281060.0\ngini = 0.5\nsamples = 2\nvalue = [1, 1]"] ;
121 -> 122 ;
123 [label="gini = 0.0\nsamples = 1\nvalue = [0, 1]"] ;
122 -> 123 ;
124 [label="gini = 0.0\nsamples = 1\nvalue = [1, 0]"] ;
122 -> 124 ;
125 [label="gini = 0.0\nsamples = 31\nvalue = [0, 31]"] ;
121 -> 125 ;
126 [label="gini = 0.0\nsamples = 1\nvalue = [1, 0]"] ;
120 -> 126 ;
127 [label="X[28] <= 495217.0\ngini = 0.003\nsamples = 654\nvalue = [1, 653]"] ;
119 -> 127 ;
128 [label="gini = 0.0\nsamples = 632\nvalue = [0, 632]"] ;
127 -> 128 ;
129 [label="X[28] <= 559787.0\ngini = 0.087\nsamples = 22\nvalue = [1, 21]"] ;
127 -> 129 ;
130 [label="gini = 0.0\nsamples = 1\nvalue = [1, 0]"] ;
129 -> 130 ;
131 [label="gini = 0.0\nsamples = 21\nvalue = [0, 21]"] ;
129 -> 131 ;
132 [label="X[10] <= 21.0\ngini = 0.097\nsamples = 117\nvalue = [6, 111]"] ;
118 -> 132 ;
133 [label="gini = 0.0\nsamples = 1\nvalue = [1, 0]"] ;
132 -> 133 ;
134 [label="X[76] <= 733610.0\ngini = 0.082\nsamples = 116\nvalue = [5, 111]"] ;
132 -> 134 ;
135 [label="X[50] <= 19.0\ngini = 0.067\nsamples = 115\nvalue = [4, 111]"] ;
134 -> 135 ;
136 [label="X[82] <= 73276784.0\ngini = 0.444\nsamples = 6\nvalue = [2, 4]"] ;
135 -> 136 ;
137 [label="gini = 0.0\nsamples = 2\nvalue = [2, 0]"] ;
136 -> 137 ;
138 [label="gini = 0.0\nsamples = 4\nvalue = [0, 4]"] ;
136 -> 138 ;
139 [label="X[166] <= 24.0\ngini = 0.036\nsamples = 109\nvalue = [2, 107]"] ;
135 -> 139 ;
140 [label="X[136] <= 2335.0\ngini = 0.5\nsamples = 2\nvalue = [1, 1]"] ;
139 -> 140 ;
141 [label="gini = 0.0\nsamples = 1\nvalue = [1, 0]"] ;
140 -> 141 ;
142 [label="gini = 0.0\nsamples = 1\nvalue = [0, 1]"] ;
140 -> 142 ;
143 [label="X[85] <= 6336560.0\ngini = 0.019\nsamples = 107\nvalue = [1, 106]"] ;
139 -> 143 ;
144 [label="gini = 0.0\nsamples = 100\nvalue = [0, 100]"] ;
143 -> 144 ;
145 [label="X[88] <= 38776740.0\ngini = 0.245\nsamples = 7\nvalue = [1, 6]"] ;
143 -> 145 ;
146 [label="gini = 0.0\nsamples = 1\nvalue = [1, 0]"] ;
145 -> 146 ;
147 [label="gini = 0.0\nsamples = 6\nvalue = [0, 6]"] ;
145 -> 147 ;
148 [label="gini = 0.0\nsamples = 1\nvalue = [1, 0]"] ;
134 -> 148 ;
149 [label="X[106] <= 318651.0\ngini = 0.375\nsamples = 4\nvalue = [1, 3]"] ;
117 -> 149 ;
150 [label="gini = 0.0\nsamples = 1\nvalue = [1, 0]"] ;
149 -> 150 ;
151 [label="gini = 0.0\nsamples = 3\nvalue = [0, 3]"] ;
149 -> 151 ;
152 [label="X[151] <= 79430744.0\ngini = 0.375\nsamples = 8\nvalue = [2, 6]"] ;
116 -> 152 ;
153 [label="gini = 0.0\nsamples = 2\nvalue = [2, 0]"] ;
152 -> 153 ;
154 [label="gini = 0.0\nsamples = 6\nvalue = [0, 6]"] ;
152 -> 154 ;
155 [label="gini = 0.0\nsamples = 1\nvalue = [1, 0]"] ;
105 -> 155 ;
156 [label="X[163] <= 1420250.0\ngini = 0.444\nsamples = 3\nvalue = [2, 1]"] ;
104 -> 156 ;
157 [label="gini = 0.0\nsamples = 2\nvalue = [2, 0]"] ;
156 -> 157 ;
158 [label="gini = 0.0\nsamples = 1\nvalue = [0, 1]"] ;
156 -> 158 ;
}
